digraph Tree {
node [shape=box] ;
0 [label="X[0] <= 0.631\nentropy = 0.951\nsamples = 300\nvalue = [189, 111]"] ;
1 [label="X[1] <= 0.606\nentropy = 0.693\nsamples = 215\nvalue = [175, 40]"] ;
0 -> 1 [labeldistance=2.5, labelangle=45, headlabel="True"] ;
2 [label="X[0] <= -0.161\nentropy = 0.241\nsamples = 176\nvalue = [169, 7]"] ;
1 -> 2 ;
3 [label="entropy = 0.0\nsamples = 114\nvalue = [114, 0]"] ;
2 -> 3 ;
4 [label="X[1] <= -0.06\nentropy = 0.509\nsamples = 62\nvalue = [55, 7]"] ;
2 -> 4 ;
5 [label="entropy = 0.0\nsamples = 31\nvalue = [31, 0]"] ;
4 -> 5 ;
6 [label="X[1] <= 0.403\nentropy = 0.771\nsamples = 31\nvalue = [24, 7]"] ;
4 -> 6 ;
7 [label="X[1] <= 0.027\nentropy = 0.663\nsamples = 29\nvalue = [24, 5]"] ;
6 -> 7 ;
8 [label="entropy = 0.0\nsamples = 1\nvalue = [0, 1]"] ;
7 -> 8 ;
9 [label="X[1] <= 0.259\nentropy = 0.592\nsamples = 28\nvalue = [24, 4]"] ;
7 -> 9 ;
10 [label="X[1] <= 0.085\nentropy = 0.684\nsamples = 22\nvalue = [18, 4]"] ;
9 -> 10 ;
11 [label="X[0] <= 0.136\nentropy = 0.391\nsamples = 13\nvalue = [12, 1]"] ;
10 -> 11 ;
12 [label="entropy = 0.0\nsamples = 6\nvalue = [6, 0]"] ;
11 -> 12 ;
13 [label="X[1] <= 0.056\nentropy = 0.592\nsamples = 7\nvalue = [6, 1]"] ;
11 -> 13 ;
14 [label="X[0] <= 0.235\nentropy = 1.0\nsamples = 2\nvalue = [1, 1]"] ;
13 -> 14 ;
15 [label="entropy = 0.0\nsamples = 1\nvalue = [0, 1]"] ;
14 -> 15 ;
16 [label="entropy = 0.0\nsamples = 1\nvalue = [1, 0]"] ;
14 -> 16 ;
17 [label="entropy = 0.0\nsamples = 5\nvalue = [5, 0]"] ;
13 -> 17 ;
18 [label="X[1] <= 0.114\nentropy = 0.918\nsamples = 9\nvalue = [6, 3]"] ;
10 -> 18 ;
19 [label="X[0] <= 0.235\nentropy = 1.0\nsamples = 2\nvalue = [1, 1]"] ;
18 -> 19 ;
20 [label="entropy = 0.0\nsamples = 1\nvalue = [1, 0]"] ;
19 -> 20 ;
21 [label="entropy = 0.0\nsamples = 1\nvalue = [0, 1]"] ;
19 -> 21 ;
22 [label="X[0] <= 0.136\nentropy = 0.863\nsamples = 7\nvalue = [5, 2]"] ;
18 -> 22 ;
23 [label="X[0] <= -0.013\nentropy = 1.0\nsamples = 4\nvalue = [2, 2]"] ;
22 -> 23 ;
24 [label="X[1] <= 0.201\nentropy = 0.918\nsamples = 3\nvalue = [2, 1]"] ;
23 -> 24 ;
25 [label="entropy = 0.0\nsamples = 2\nvalue = [2, 0]"] ;
24 -> 25 ;
26 [label="entropy = 0.0\nsamples = 1\nvalue = [0, 1]"] ;
24 -> 26 ;
27 [label="entropy = 0.0\nsamples = 1\nvalue = [0, 1]"] ;
23 -> 27 ;
28 [label="entropy = 0.0\nsamples = 3\nvalue = [3, 0]"] ;
22 -> 28 ;
29 [label="entropy = 0.0\nsamples = 6\nvalue = [6, 0]"] ;
9 -> 29 ;
30 [label="entropy = 0.0\nsamples = 2\nvalue = [0, 2]"] ;
6 -> 30 ;
31 [label="X[1] <= 1.853\nentropy = 0.619\nsamples = 39\nvalue = [6, 33]"] ;
1 -> 31 ;
32 [label="X[1] <= 1.099\nentropy = 0.779\nsamples = 26\nvalue = [6, 20]"] ;
31 -> 32 ;
33 [label="entropy = 0.0\nsamples = 8\nvalue = [0, 8]"] ;
32 -> 33 ;
34 [label="X[1] <= 1.36\nentropy = 0.918\nsamples = 18\nvalue = [6, 12]"] ;
32 -> 34 ;
35 [label="X[0] <= -0.458\nentropy = 0.985\nsamples = 7\nvalue = [4, 3]"] ;
34 -> 35 ;
36 [label="entropy = 0.0\nsamples = 2\nvalue = [2, 0]"] ;
35 -> 36 ;
37 [label="X[1] <= 1.244\nentropy = 0.971\nsamples = 5\nvalue = [2, 3]"] ;
35 -> 37 ;
38 [label="X[0] <= -0.359\nentropy = 1.0\nsamples = 4\nvalue = [2, 2]"] ;
37 -> 38 ;
39 [label="entropy = 0.0\nsamples = 1\nvalue = [0, 1]"] ;
38 -> 39 ;
40 [label="X[0] <= 0.186\nentropy = 0.918\nsamples = 3\nvalue = [2, 1]"] ;
38 -> 40 ;
41 [label="entropy = 0.0\nsamples = 2\nvalue = [2, 0]"] ;
40 -> 41 ;
42 [label="entropy = 0.0\nsamples = 1\nvalue = [0, 1]"] ;
40 -> 42 ;
43 [label="entropy = 0.0\nsamples = 1\nvalue = [0, 1]"] ;
37 -> 43 ;
44 [label="X[1] <= 1.781\nentropy = 0.684\nsamples = 11\nvalue = [2, 9]"] ;
34 -> 44 ;
45 [label="X[0] <= -1.102\nentropy = 0.469\nsamples = 10\nvalue = [1, 9]"] ;
44 -> 45 ;
46 [label="entropy = 0.0\nsamples = 1\nvalue = [1, 0]"] ;
45 -> 46 ;
47 [label="entropy = 0.0\nsamples = 9\nvalue = [0, 9]"] ;
45 -> 47 ;
48 [label="entropy = 0.0\nsamples = 1\nvalue = [1, 0]"] ;
44 -> 48 ;
49 [label="entropy = 0.0\nsamples = 13\nvalue = [0, 13]"] ;
31 -> 49 ;
50 [label="X[1] <= -0.814\nentropy = 0.645\nsamples = 85\nvalue = [14, 71]"] ;
0 -> 50 [labeldistance=2.5, labelangle=-45, headlabel="False"] ;
51 [label="X[1] <= -1.365\nentropy = 0.211\nsamples = 30\nvalue = [1, 29]"] ;
50 -> 51 ;
52 [label="X[0] <= 0.829\nentropy = 0.722\nsamples = 5\nvalue = [1, 4]"] ;
51 -> 52 ;
53 [label="X[0] <= 0.73\nentropy = 1.0\nsamples = 2\nvalue = [1, 1]"] ;
52 -> 53 ;
54 [label="entropy = 0.0\nsamples = 1\nvalue = [0, 1]"] ;
53 -> 54 ;
55 [label="entropy = 0.0\nsamples = 1\nvalue = [1, 0]"] ;
53 -> 55 ;
56 [label="entropy = 0.0\nsamples = 3\nvalue = [0, 3]"] ;
52 -> 56 ;
57 [label="entropy = 0.0\nsamples = 25\nvalue = [0, 25]"] ;
51 -> 57 ;
58 [label="X[0] <= 1.423\nentropy = 0.789\nsamples = 55\nvalue = [13, 42]"] ;
50 -> 58 ;
59 [label="X[1] <= 0.447\nentropy = 0.946\nsamples = 33\nvalue = [12, 21]"] ;
58 -> 59 ;
60 [label="X[0] <= 1.027\nentropy = 0.985\nsamples = 14\nvalue = [8, 6]"] ;
59 -> 60 ;
61 [label="X[0] <= 0.829\nentropy = 0.994\nsamples = 11\nvalue = [5, 6]"] ;
60 -> 61 ;
62 [label="X[1] <= -0.51\nentropy = 0.918\nsamples = 6\nvalue = [4, 2]"] ;
61 -> 62 ;
63 [label="entropy = 0.0\nsamples = 1\nvalue = [0, 1]"] ;
62 -> 63 ;
64 [label="X[1] <= 0.201\nentropy = 0.722\nsamples = 5\nvalue = [4, 1]"] ;
62 -> 64 ;
65 [label="entropy = 0.0\nsamples = 2\nvalue = [2, 0]"] ;
64 -> 65 ;
66 [label="X[0] <= 0.73\nentropy = 0.918\nsamples = 3\nvalue = [2, 1]"] ;
64 -> 66 ;
67 [label="entropy = 0.0\nsamples = 1\nvalue = [1, 0]"] ;
66 -> 67 ;
68 [label="X[1] <= 0.317\nentropy = 1.0\nsamples = 2\nvalue = [1, 1]"] ;
66 -> 68 ;
69 [label="entropy = 0.0\nsamples = 1\nvalue = [0, 1]"] ;
68 -> 69 ;
70 [label="entropy = 0.0\nsamples = 1\nvalue = [1, 0]"] ;
68 -> 70 ;
71 [label="X[1] <= -0.626\nentropy = 0.722\nsamples = 5\nvalue = [1, 4]"] ;
61 -> 71 ;
72 [label="entropy = 0.0\nsamples = 1\nvalue = [1, 0]"] ;
71 -> 72 ;
73 [label="entropy = 0.0\nsamples = 4\nvalue = [0, 4]"] ;
71 -> 73 ;
74 [label="entropy = 0.0\nsamples = 3\nvalue = [3, 0]"] ;
60 -> 74 ;
75 [label="X[1] <= 0.664\nentropy = 0.742\nsamples = 19\nvalue = [4, 15]"] ;
59 -> 75 ;
76 [label="entropy = 0.0\nsamples = 4\nvalue = [0, 4]"] ;
75 -> 76 ;
77 [label="X[1] <= 1.331\nentropy = 0.837\nsamples = 15\nvalue = [4, 11]"] ;
75 -> 77 ;
78 [label="X[0] <= 0.829\nentropy = 1.0\nsamples = 4\nvalue = [2, 2]"] ;
77 -> 78 ;
79 [label="entropy = 0.0\nsamples = 1\nvalue = [1, 0]"] ;
78 -> 79 ;
80 [label="X[0] <= 1.176\nentropy = 0.918\nsamples = 3\nvalue = [1, 2]"] ;
78 -> 80 ;
81 [label="entropy = 0.0\nsamples = 2\nvalue = [0, 2]"] ;
80 -> 81 ;
82 [label="entropy = 0.0\nsamples = 1\nvalue = [1, 0]"] ;
80 -> 82 ;
83 [label="X[1] <= 1.824\nentropy = 0.684\nsamples = 11\nvalue = [2, 9]"] ;
77 -> 83 ;
84 [label="entropy = 0.0\nsamples = 4\nvalue = [0, 4]"] ;
83 -> 84 ;
85 [label="X[1] <= 2.143\nentropy = 0.863\nsamples = 7\nvalue = [2, 5]"] ;
83 -> 85 ;
86 [label="X[1] <= 2.027\nentropy = 0.971\nsamples = 5\nvalue = [2, 3]"] ;
85 -> 86 ;
87 [label="X[1] <= 1.926\nentropy = 0.811\nsamples = 4\nvalue = [1, 3]"] ;
86 -> 87 ;
88 [label="X[0] <= 1.126\nentropy = 1.0\nsamples = 2\nvalue = [1, 1]"] ;
87 -> 88 ;
89 [label="entropy = 0.0\nsamples = 1\nvalue = [0, 1]"] ;
88 -> 89 ;
90 [label="entropy = 0.0\nsamples = 1\nvalue = [1, 0]"] ;
88 -> 90 ;
91 [label="entropy = 0.0\nsamples = 2\nvalue = [0, 2]"] ;
87 -> 91 ;
92 [label="entropy = 0.0\nsamples = 1\nvalue = [1, 0]"] ;
86 -> 92 ;
93 [label="entropy = 0.0\nsamples = 2\nvalue = [0, 2]"] ;
85 -> 93 ;
94 [label="X[1] <= -0.742\nentropy = 0.267\nsamples = 22\nvalue = [1, 21]"] ;
58 -> 94 ;
95 [label="X[0] <= 2.117\nentropy = 1.0\nsamples = 2\nvalue = [1, 1]"] ;
94 -> 95 ;
96 [label="entropy = 0.0\nsamples = 1\nvalue = [1, 0]"] ;
95 -> 96 ;
97 [label="entropy = 0.0\nsamples = 1\nvalue = [0, 1]"] ;
95 -> 97 ;
98 [label="entropy = 0.0\nsamples = 20\nvalue = [0, 20]"] ;
94 -> 98 ;
}